1.915479451417922974e-01,7.837101817131042480e-02,5.747770518064498901e-02,1.357674598693847656e-01,2.024974226951599121e-01,2.051711082458496094e-01,9.950257092714309692e-02,1.453483551740646362e-01,1.000395789742469788e-01,1.476740390062332153e-01,1.498616039752960205e-01,3.217475712299346924e-01,6.157260015606880188e-02,1.891212165355682373e-01,-8.116559684276580811e-02,-7.579153776168823242e-02,1.695025116205215454e-01,1.462647914886474609e-01,1.253856271505355835e-01,-6.097079813480377197e-02,-1.019404921680688858e-02,2.481459677219390869e-01,6.006355583667755127e-02,4.551227390766143799e-02,-1.052581518888473511e-02,-8.283451944589614868e-02,2.592958807945251465e-01,7.049869000911712646e-02,1.401364505290985107e-01,1.147425174713134766e-02,-1.721708923578262329e-01,3.372082412242889404e-01,7.585033029317855835e-02,-1.246142387390136719e-02,9.192425757646560669e-03,-2.504154108464717865e-02,1.937179565429687500e-01,-1.099927127361297607e-01,6.146633252501487732e-02,7.075144350528717041e-02,3.279483318328857422e-02,-2.290518023073673248e-02,5.621421709656715393e-02,7.680159807205200195e-02,2.110854387283325195e-01,3.893964588642120361e-01,2.652298212051391602e-01,7.234889268875122070e-02,6.313618272542953491e-02,1.151806190609931946e-01
