1.430790275335311890e-01,1.038865894079208374e-01,-1.945556141436100006e-02,-1.009213030338287354e-01,1.362192183732986450e-01,2.967062294483184814e-01,1.566094458103179932e-01,1.278017461299896240e-01,1.004501283168792725e-01,7.655973732471466064e-02,1.676499396562576294e-01,3.396323919296264648e-01,-2.433637902140617371e-02,2.055220156908035278e-01,-1.473605781793594360e-01,3.678430570289492607e-03,1.018223315477371216e-01,1.414521336555480957e-01,1.387856155633926392e-01,-4.544991627335548401e-02,4.457625374197959900e-02,2.877413034439086914e-01,4.154461994767189026e-02,-2.914360538125038147e-02,-2.458342537283897400e-02,-1.108128298074007034e-02,1.285011786967515945e-02,5.752039328217506409e-02,2.223773002624511719e-01,1.157495193183422089e-02,-1.203817650675773621e-01,3.454048037528991699e-01,3.239286243915557861e-01,3.662465512752532959e-01,-2.709463611245155334e-02,-3.860575705766677856e-02,1.833698302507400513e-01,-1.175615116953849792e-01,3.591304272413253784e-02,1.541552841663360596e-01,8.694835752248764038e-02,-3.559854999184608459e-02,9.585273265838623047e-02,7.778324186801910400e-02,1.588182896375656128e-01,5.314437150955200195e-01,2.894809842109680176e-01,6.510112434625625610e-02,1.202419865876436234e-02,1.331343799829483032e-01
