1.124874874949455261e-01,-3.654054179787635803e-02,1.501424517482519150e-02,1.020275726914405823e-01,-1.185912191867828369e-01,5.611030757427215576e-02,-1.270766407251358032e-01,-2.337011508643627167e-02,3.752933815121650696e-03,3.731777891516685486e-02,2.309759557247161865e-01,1.981976628303527832e-02,4.310907423496246338e-02,-6.298219785094261169e-03,3.732241317629814148e-02,-1.179784759879112244e-01,-7.015008479356765747e-02,1.109124943614006042e-01,8.486203849315643311e-02,2.113620005548000336e-02,-1.240836754441261292e-01,1.005913615226745605e-01,-1.018241941928863525e-01,-2.131521105766296387e-01,1.301408708095550537e-01,-6.113447248935699463e-02,6.041155382990837097e-02,1.319736689329147339e-01,4.461615160107612610e-02,5.506362393498420715e-02,3.021286986768245697e-02,-8.141511678695678711e-02,-2.069073356688022614e-02,9.204729646444320679e-02,8.798651397228240967e-02,4.391175508499145508e-01,-1.881464011967182159e-02,1.641726307570934296e-02,-2.173498123884201050e-01,5.556787177920341492e-02,5.724266543984413147e-02,-6.739468872547149658e-02,9.649246931076049805e-02,7.516807317733764648e-02,1.783313751220703125e-01,8.067791908979415894e-02,8.857012540102005005e-02,-4.725206270813941956e-02,-1.427154242992401123e-01,6.612268276512622833e-03
