3.089275956153869629e-01,9.946636855602264404e-02,-1.331183761358261108e-01,2.607671357691287994e-02,-1.800857931375503540e-01,-9.537286758422851562e-01,5.626201033592224121e-01,1.795415952801704407e-02,4.713664650917053223e-01,-8.293949067592620850e-02,1.810431033372879028e-01,3.461582362651824951e-01,2.200682014226913452e-01,6.941445171833038330e-02,7.941921949386596680e-01,1.207668781280517578e-01,2.915019989013671875e-01,2.200321992859244347e-03,-1.518283039331436157e-01,7.592670619487762451e-02,7.887325249612331390e-03,4.841164126992225647e-02,-1.326734721660614014e-01,-3.766252696514129639e-01,-8.990768343210220337e-03,3.414672017097473145e-01,8.119221031665802002e-02,2.676453255116939545e-02,-6.761807799339294434e-01,-1.498967260122299194e-01,-1.367188617587089539e-02,1.954554766416549683e-02,1.685816198587417603e-01,8.769626170396804810e-02,1.421916633844375610e-01,-8.881104737520217896e-02,-3.181473314762115479e-01,1.503711193799972534e-01,1.166937425732612610e-01,1.081603318452835083e-01,9.039749205112457275e-02,1.282466948032379150e-01,1.079084798693656921e-01,-1.650147140026092529e-01,1.476671248674392700e-01,-5.293864607810974121e-01,1.106884405016899109e-01,-3.860871195793151855e-01,1.180456951260566711e-01,2.142342776060104370e-01
