1.264317184686660767e-01,-4.486228525638580322e-02,1.303198933601379395e-02,9.917795658111572266e-02,-1.369295269250869751e-01,7.896875590085983276e-02,-1.418903470039367676e-01,-1.485579460859298706e-02,-5.405283067375421524e-03,4.124103114008903503e-02,2.455098479986190796e-01,7.636507600545883179e-02,4.761532694101333618e-02,-6.399654317647218704e-03,3.868242725729942322e-02,-1.268042922019958496e-01,-7.520603388547897339e-02,1.118188872933387756e-01,7.594624161720275879e-02,5.749300122261047363e-03,-1.299410760402679443e-01,9.770348668098449707e-02,-1.070990115404129028e-01,-2.248313426971435547e-01,1.248439401388168335e-01,-6.716099381446838379e-02,6.906724721193313599e-02,1.463732570409774780e-01,3.789803758263587952e-02,4.474081099033355713e-02,2.324329316616058350e-02,-9.279534220695495605e-02,-2.288200333714485168e-02,9.647578001022338867e-02,6.771459430456161499e-02,3.670463860034942627e-01,3.005011752247810364e-02,7.280249148607254028e-03,-2.417048364877700806e-01,5.982626974582672119e-02,6.391562521457672119e-02,-5.924006551504135132e-02,9.447117894887924194e-02,6.738958507776260376e-02,1.740820705890655518e-01,8.739119768142700195e-02,8.733156323432922363e-02,-3.665168955922126770e-02,-1.479951441287994385e-01,3.797895740717649460e-03
