3.704187273979187012e-01,1.480175107717514038e-01,1.052564829587936401e-01,2.852643653750419617e-02,8.712432533502578735e-02,1.095847561955451965e-01,1.016266494989395142e-01,-1.142053958028554916e-02,3.865020275115966797e-01,-5.312602221965789795e-02,2.232639938592910767e-01,3.147309720516204834e-01,9.133823215961456299e-02,1.434386968612670898e-01,5.440961718559265137e-01,-1.373498234897851944e-02,4.182704389095306396e-01,-8.680140972137451172e-02,1.556260697543621063e-02,-3.081375546753406525e-02,1.436278522014617920e-01,-2.807688154280185699e-02,4.813435673713684082e-02,-1.326940655708312988e-01,9.199505299329757690e-02,5.974975228309631348e-01,7.651524245738983154e-02,8.516357094049453735e-02,9.408113360404968262e-02,-2.218069694936275482e-02,2.612226605415344238e-01,-8.868838101625442505e-02,1.788224577903747559e-01,-8.448236435651779175e-02,1.897166371345520020e-01,-2.040751725435256958e-01,-1.042001917958259583e-01,4.222144186496734619e-01,1.886997818946838379e-01,1.578293740749359131e-01,1.694672107696533203e-01,-7.823693752288818359e-02,1.843977123498916626e-01,6.586031615734100342e-02,1.658877730369567871e-01,8.747626841068267822e-02,1.686522066593170166e-01,9.503964334726333618e-02,1.610367931425571442e-02,1.945590525865554810e-01
