9.593466669321060181e-02,4.007166624069213867e-01,8.340149372816085815e-02,1.367824375629425049e-01,8.839275687932968140e-02,2.244609594345092773e-01,-6.460098177194595337e-02,-7.532671838998794556e-02,1.335267163813114166e-02,9.968812018632888794e-02,1.885230243206024170e-01,5.381234735250473022e-02,3.038846850395202637e-01,2.379777841269969940e-02,8.851135522127151489e-02,6.231116503477096558e-02,-1.356788575649261475e-01,-4.488065838813781738e-03,-1.788379624485969543e-02,3.321717679500579834e-01,8.999181538820266724e-02,9.266874939203262329e-02,4.156099557876586914e-01,8.280403912067413330e-03,4.106615483760833740e-02,1.133700236678123474e-01,2.147695515304803848e-03,1.295044124126434326e-01,4.878741502761840820e-02,1.861296594142913818e-01,5.262089427560567856e-03,2.109866738319396973e-01,1.546833217144012451e-01,6.582871824502944946e-02,5.133158527314662933e-03,1.150525957345962524e-01,-1.909086853265762329e-01,8.204211294651031494e-02,9.883929789066314697e-02,-1.025350317358970642e-01,-7.200925052165985107e-02,4.006553441286087036e-02,1.240011602640151978e-01,2.158746272325515747e-01,-7.063468545675277710e-02,1.289935857057571411e-01,8.042473345994949341e-02,-1.059182081371545792e-02,-4.814429208636283875e-03,2.103308029472827911e-02
