4.490702226758003235e-02,-6.889438629150390625e-02,5.136515945196151733e-02,2.394842058420181274e-01,1.000011041760444641e-01,1.300684064626693726e-01,1.376530528068542480e-01,-3.283285349607467651e-02,-2.378907613456249237e-02,-8.968108892440795898e-02,-2.058797515928745270e-02,1.950272321701049805e-01,1.404466331005096436e-01,2.454114407300949097e-01,9.297087788581848145e-03,7.769816368818283081e-02,1.195344552397727966e-01,2.271116971969604492e-01,2.061816491186618805e-02,2.588758170604705811e-01,1.552249789237976074e-01,4.860504716634750366e-02,9.497323632240295410e-02,1.382228732109069824e-02,5.781619250774383545e-02,2.107132822275161743e-01,1.791590154170989990e-01,2.239090800285339355e-01,7.289139926433563232e-02,4.420749098062515259e-02,-4.921928979456424713e-03,2.416688799858093262e-01,1.256850808858871460e-01,1.528861522674560547e-01,-9.779949905350804329e-04,-4.998939856886863708e-02,-1.234645470976829529e-01,-4.667434096336364746e-02,-3.473804891109466553e-02,-9.976849704980850220e-02,1.009498462080955505e-01,-2.739119157195091248e-02,2.449895143508911133e-01,1.574699580669403076e-01,2.073870748281478882e-01,-2.302942425012588501e-02,5.735370516777038574e-02,1.352020502090454102e-01,1.430519670248031616e-02,1.415835618972778320e-01
